<?xml version="1.0" encoding="UTF-8"?>
<BIF VERSION="0.3"  xmlns="http://www.cs.ubc.ca/labs/lci/fopi/ve/XMLBIFv0_3"
	xmlns:xsi="http://www.w3.org/2001/XMLSchema-instance"
	xsi:schemaLocation="http://www.cs.ubc.ca/labs/lci/fopi/ve/XMLBIFv0_3 http://www.cs.ubc.ca/labs/lci/fopi/ve/XMLBIFv0_3/XMLBIFv0_3.xsd">
<NETWORK>
<NAME>Car Starting Problem</NAME>
<PROPERTY>detailed = </PROPERTY>
<PROPERTY>short = The car starting problem is a larger network intended to model the behaviour of a car, based on the state of its parts.</PROPERTY>

<VARIABLE TYPE="nature">
	<NAME>Alternator OK</NAME>
	<OUTCOME>T</OUTCOME>
	<OUTCOME>F</OUTCOME>
	<PROPERTY>position = (7557.63720703125, 5049.93359375)</PROPERTY>
</VARIABLE>

<VARIABLE TYPE="nature">
	<NAME>Charging System OK</NAME>
	<OUTCOME>T</OUTCOME>
	<OUTCOME>F</OUTCOME>
	<PROPERTY>position = (7688.0087890625, 5086.3486328125)</PROPERTY>
</VARIABLE>

<VARIABLE TYPE="nature">
	<NAME>Battery Age</NAME>
	<OUTCOME>new</OUTCOME>
	<OUTCOME>old</OUTCOME>
	<OUTCOME>very_old</OUTCOME>
	<PROPERTY>position = (7431.71533203125, 5047.3916015625)</PROPERTY>
</VARIABLE>

<VARIABLE TYPE="nature">
	<NAME>Battery Voltage</NAME>
	<OUTCOME>strong</OUTCOME>
	<OUTCOME>weak</OUTCOME>
	<OUTCOME>dead</OUTCOME>
	<PROPERTY>position = (7576.9609375, 5138.255859375)</PROPERTY>
</VARIABLE>

<VARIABLE TYPE="nature">
	<NAME>Main Fuse OK</NAME>
	<OUTCOME>T</OUTCOME>
	<OUTCOME>F</OUTCOME>
	<PROPERTY>position = (7281.35009765625, 5086.64990234375)</PROPERTY>
</VARIABLE>

<VARIABLE TYPE="nature">
	<NAME>Distributer OK</NAME>
	<OUTCOME>T</OUTCOME>
	<OUTCOME>F</OUTCOME>
	<PROPERTY>position = (7272.26416015625, 5172.49755859375)</PROPERTY>
</VARIABLE>

<VARIABLE TYPE="nature">
	<NAME>Voltage at Plug</NAME>
	<OUTCOME>strong</OUTCOME>
	<OUTCOME>weak</OUTCOME>
	<OUTCOME>dead</OUTCOME>
	<PROPERTY>position = (7405.2373046875, 5132.45849609375)</PROPERTY>
</VARIABLE>

<VARIABLE TYPE="nature">
	<NAME>Starter Motor OK</NAME>
	<OUTCOME>T</OUTCOME>
	<OUTCOME>F</OUTCOME>
	<PROPERTY>position = (7286.0302734375, 5376.66845703125)</PROPERTY>
</VARIABLE>

<VARIABLE TYPE="nature">
	<NAME>Starter System OK</NAME>
	<OUTCOME>T</OUTCOME>
	<OUTCOME>F</OUTCOME>
	<PROPERTY>position = (7426.22607421875, 5398.56884765625)</PROPERTY>
</VARIABLE>

<VARIABLE TYPE="nature">
	<NAME>Headlights</NAME>
	<OUTCOME>bright</OUTCOME>
	<OUTCOME>dim</OUTCOME>
	<OUTCOME>off</OUTCOME>
	<PROPERTY>position = (7618.69921875, 5196.7080078125)</PROPERTY>
</VARIABLE>

<VARIABLE TYPE="nature">
	<NAME>Spark Plugs</NAME>
	<OUTCOME>okay</OUTCOME>
	<OUTCOME>too_wide</OUTCOME>
	<OUTCOME>fouled</OUTCOME>
	<PROPERTY>position = (7471.55810546875, 5194.82275390625)</PROPERTY>
</VARIABLE>

<VARIABLE TYPE="nature">
	<NAME>Car Cranks</NAME>
	<OUTCOME>T</OUTCOME>
	<OUTCOME>F</OUTCOME>
	<PROPERTY>position = (7541.77294921875, 5406.60791015625)</PROPERTY>
</VARIABLE>

<VARIABLE TYPE="nature">
	<NAME>Spark Timing</NAME>
	<OUTCOME>good</OUTCOME>
	<OUTCOME>bad</OUTCOME>
	<OUTCOME>very_bad</OUTCOME>
	<PROPERTY>position = (7272.26416015625, 5278.279296875)</PROPERTY>
</VARIABLE>

<VARIABLE TYPE="nature">
	<NAME>Fuel System OK</NAME>
	<OUTCOME>T</OUTCOME>
	<OUTCOME>F</OUTCOME>
	<PROPERTY>position = (7610.9697265625, 5282.14453125)</PROPERTY>
</VARIABLE>

<VARIABLE TYPE="nature">
	<NAME>Air Filter Clean</NAME>
	<OUTCOME>T</OUTCOME>
	<OUTCOME>F</OUTCOME>
	<PROPERTY>position = (7711.73583984375, 5245.86767578125)</PROPERTY>
</VARIABLE>

<VARIABLE TYPE="nature">
	<NAME>Air System OK</NAME>
	<OUTCOME>T</OUTCOME>
	<OUTCOME>F</OUTCOME>
	<PROPERTY>position = (7708.51513671875, 5320.99951171875)</PROPERTY>
</VARIABLE>

<VARIABLE TYPE="nature">
	<NAME>Car Starts</NAME>
	<OUTCOME>T</OUTCOME>
	<OUTCOME>F</OUTCOME>
	<PROPERTY>position = (7667.9345703125, 5394.36865234375)</PROPERTY>
</VARIABLE>

<VARIABLE TYPE="nature">
	<NAME>Spark Quality</NAME>
	<OUTCOME>good</OUTCOME>
	<OUTCOME>bad</OUTCOME>
	<OUTCOME>very_bad</OUTCOME>
	<PROPERTY>position = (7428.53466796875, 5271.0556640625)</PROPERTY>
</VARIABLE>

<VARIABLE TYPE="nature">
	<NAME>Spark Adequate</NAME>
	<OUTCOME>T</OUTCOME>
	<OUTCOME>F</OUTCOME>
	<PROPERTY>position = (7532.12158203125, 5345.9501953125)</PROPERTY>
</VARIABLE>

<DEFINITION>
	<FOR>Alternator OK</FOR>
	<TABLE>0.9997 3.0E-4</TABLE>
</DEFINITION>

<DEFINITION>
	<FOR>Charging System OK</FOR>
	<GIVEN>Alternator OK</GIVEN>
	<TABLE>0.995 0.005 0.0 1.0</TABLE>
</DEFINITION>

<DEFINITION>
	<FOR>Battery Age</FOR>
	<TABLE>0.4 0.4 0.2</TABLE>
</DEFINITION>

<DEFINITION>
	<FOR>Battery Voltage</FOR>
	<GIVEN>Charging System OK</GIVEN>
	<GIVEN>Battery Age</GIVEN>
	<TABLE>0.999 8.0E-4 2.0E-4 0.99 0.008 0.002 0.6 0.3 0.1 0.8 0.15 0.05 0.05 0.3 0.65 0.002 0.1 0.898</TABLE>
</DEFINITION>

<DEFINITION>
	<FOR>Main Fuse OK</FOR>
	<TABLE>0.999 0.001</TABLE>
</DEFINITION>

<DEFINITION>
	<FOR>Distributer OK</FOR>
	<TABLE>0.99 0.01</TABLE>
</DEFINITION>

<DEFINITION>
	<FOR>Voltage at Plug</FOR>
	<GIVEN>Battery Voltage</GIVEN>
	<GIVEN>Main Fuse OK</GIVEN>
	<GIVEN>Distributer OK</GIVEN>
	<TABLE>0.98 0.015 0.005 0.0 0.0 1.0 0.0 0.0 1.0 0.0 0.0 1.0 0.1 0.8 0.1 0.0 0.0 1.0 0.0 0.0 1.0 0.0 0.0 1.0 0.0 0.0 1.0 0.0 0.0 1.0 0.0 0.0 1.0 0.0 0.0 1.0</TABLE>
</DEFINITION>

<DEFINITION>
	<FOR>Starter Motor OK</FOR>
	<TABLE>0.992 0.008</TABLE>
</DEFINITION>

<DEFINITION>
	<FOR>Starter System OK</FOR>
	<GIVEN>Battery Voltage</GIVEN>
	<GIVEN>Main Fuse OK</GIVEN>
	<GIVEN>Starter Motor OK</GIVEN>
	<TABLE>0.998 0.002 0.0 1.0 0.0 1.0 0.0 1.0 0.72 0.28 0.0 1.0 0.0 1.0 0.0 1.0 0.0 1.0 0.0 1.0 0.0 1.0 0.0 1.0</TABLE>
</DEFINITION>

<DEFINITION>
	<FOR>Headlights</FOR>
	<GIVEN>Voltage at Plug</GIVEN>
	<TABLE>0.98 0.015 0.005 0.05 0.9 0.05 0.0 0.0 1.0</TABLE>
</DEFINITION>

<DEFINITION>
	<FOR>Spark Plugs</FOR>
	<TABLE>0.99 0.003 0.007</TABLE>
</DEFINITION>

<DEFINITION>
	<FOR>Car Cranks</FOR>
	<GIVEN>Starter System OK</GIVEN>
	<TABLE>0.98 0.02 0.0 1.0</TABLE>
</DEFINITION>

<DEFINITION>
	<FOR>Spark Timing</FOR>
	<GIVEN>Distributer OK</GIVEN>
	<TABLE>0.97 0.02 0.01 0.2 0.3 0.5</TABLE>
</DEFINITION>

<DEFINITION>
	<FOR>Fuel System OK</FOR>
	<TABLE>0.9 0.1</TABLE>
</DEFINITION>

<DEFINITION>
	<FOR>Air Filter Clean</FOR>
	<TABLE>0.9 0.1</TABLE>
</DEFINITION>

<DEFINITION>
	<FOR>Air System OK</FOR>
	<GIVEN>Air Filter Clean</GIVEN>
	<TABLE>0.9 0.1 0.3 0.7</TABLE>
</DEFINITION>

<DEFINITION>
	<FOR>Car Starts</FOR>
	<GIVEN>Car Cranks</GIVEN>
	<GIVEN>Fuel System OK</GIVEN>
	<GIVEN>Air System OK</GIVEN>
	<GIVEN>Spark Adequate</GIVEN>
	<TABLE>1.0 0.0 0.0 1.0 0.0 1.0 0.0 1.0 0.0 1.0 0.0 1.0 0.0 1.0 0.0 1.0 0.0 1.0 0.0 1.0 0.0 1.0 0.0 1.0 0.0 1.0 0.0 1.0 0.0 1.0 0.0 1.0</TABLE>
</DEFINITION>

<DEFINITION>
	<FOR>Spark Quality</FOR>
	<GIVEN>Voltage at Plug</GIVEN>
	<GIVEN>Spark Plugs</GIVEN>
	<TABLE>1.0 0.0 0.0 0.0 1.0 0.0 0.0 0.0 1.0 0.0 1.0 0.0 0.0 0.5 0.5 0.0 0.2 0.8 0.0 0.0 1.0 0.0 0.0 1.0 0.0 0.0 1.0</TABLE>
</DEFINITION>

<DEFINITION>
	<FOR>Spark Adequate</FOR>
	<GIVEN>Spark Timing</GIVEN>
	<GIVEN>Spark Quality</GIVEN>
	<TABLE>0.99 0.01 0.5 0.5 0.1 0.9 0.5 0.5 0.05 0.95 0.01 0.99 0.1 0.9 0.01 0.99 0.0 1.0</TABLE>
</DEFINITION>
</NETWORK>
</BIF>
